#ifndef NeuralNetworkWeights_cuh
#define NeuralNetworkWeights_cuh

#ifdef __CUDACC__
#define CUDA_CONST_VAR __device__
#else
#define CUDA_CONST_VAR
#endif

namespace T5DNN
{
    CUDA_CONST_VAR const float bias_0[32] = {
        -0.4531551f,-3.4143956f, 0.4614772f,-0.1540973f,-0.4705772f, 2.2288511f,-0.1638151f,-2.2967377f,-0.0980852f, 2.5898573f, 2.1053982f,-0.5250560f, 1.7904178f,-2.1629353f, 0.0126438f,-1.5950058f, 0.2222405f,-3.0977793f,-0.7482123f, 1.0278695f,-0.5049257f, 0.0799793f,-0.6804453f, 1.3319844f, 2.0278325f,-0.0636433f,-0.3048763f,-0.0203767f, 2.8479643f,-1.8840625f, 2.1683981f,-2.6731310f
    };
    CUDA_CONST_VAR const float wgtT_0[38][32] = {
        {  2.6813958f,-7.5999179f, 9.6705523f,-0.0019928f,-3.4468415f, 0.6964011f,-11.3304491f, 2.8160059f, 2.1551027f,-1.6534873f,-5.9777060f, 6.7641873f,-9.0711632f,-10.3917112f, 0.1334764f, 0.1472527f,-0.5516214f,-5.0067720f, 2.5482984f,-5.1579971f,-2.0170014f, 0.0033929f, 6.0599399f, 4.4194555f, 0.0183518f, 0.7185293f,17.6324806f, 2.1472025f,11.4339266f,-7.5087676f,10.2089424f, 1.0287609f },
        { -0.5249851f,-0.8239495f,-0.7053807f,-0.0608759f, 0.5939785f, 0.0345646f,-1.6874192f,-5.6444612f,-0.2427027f,-1.8462510f,-1.0717440f, 5.4301796f, 0.9837363f, 1.9291565f,-0.0671409f, 1.1819102f,-1.1986607f,-0.4036925f,-0.9310793f,-3.7827361f,-1.0830010f,-0.0161482f, 1.7173759f,-1.8233215f, 2.1685185f,-0.2356270f, 0.0647987f,-0.2918991f, 1.2704589f, 2.2216427f,-0.6488610f,-2.0410702f },
        {  2.4283767f,-0.0558892f, 0.6059487f, 0.0881671f, 0.2530097f, 0.0793648f,-0.0374265f, 0.5553714f, 1.4782748f, 0.4055679f, 0.2929975f,-0.5834634f, 0.1013821f, 0.3605047f,-0.1048361f,-0.5620387f,-0.3804692f,-0.1765794f, 0.6934114f,-0.8779877f,-6.3621883f, 0.1628031f,-0.5037721f,-0.3761132f, 0.0497315f,-2.3187158f, 0.0054370f, 0.9101093f, 0.4997721f,-0.3674189f,-0.4288886f, 0.6233006f },
        { -0.1362735f,-0.0359108f,-0.0236058f, 0.0411095f, 0.0752229f, 0.0450068f,-0.0119016f,-0.9787832f,-0.0815807f,-0.7728007f, 0.3276345f, 1.3813705f, 0.0341588f, 0.0856322f,-0.1060181f, 0.1116403f,-0.3629069f,-0.0075891f,-0.2483989f,-1.1337923f, 0.0633751f,-0.0072611f, 0.3933827f,-0.3429468f,-0.0565806f, 0.0095546f,-0.0002873f, 0.0836423f, 0.1643153f, 0.3361433f,-0.0757429f,-0.1796918f },
        {  0.3429430f, 0.2486613f, 0.3154350f,-0.0076569f, 0.0384461f,-0.1005525f,-0.0005682f,-0.9460475f, 0.5532277f, 0.8134423f,-0.5854012f, 0.3448965f,-0.0689892f,-0.1757504f,-0.0831100f, 1.0220217f,-0.6074610f,-0.4838690f, 0.7441201f, 1.6447924f,-0.3606420f, 0.0217647f,-0.9511091f,-0.6594563f,-0.5519835f, 0.1531827f,-0.0052213f,-0.1999175f,-0.0621323f, 1.0027380f,-0.1696525f,-0.5021955f },
        { -0.5296414f, 0.5598598f,-1.4983504f,-0.0671033f,-0.2808350f,-0.6620611f,-0.7484766f,-0.1844416f, 0.4579138f,-1.8439834f,-0.3935096f, 1.0803449f, 0.3383048f,-0.2569011f, 0.1169335f,-0.3530138f,-0.0145467f, 0.2036123f, 0.2039081f,-1.1771519f, 0.0461909f, 0.1121151f,-1.4600186f,-3.0637221f,-2.4180262f, 0.3140704f, 0.0563370f,-1.2629739f, 0.3010755f,-0.3753234f,-3.7249119f, 0.7888644f },
        { -0.2312549f,-0.6029412f,-0.0645240f,-0.1273375f, 0.4321181f,-0.1865801f,-0.7070975f,-0.7906294f, 0.0688283f, 0.8710533f,-1.5359280f, 0.6118680f, 0.5910171f, 0.6016266f, 0.1241910f, 0.8755695f,-0.1919720f, 0.0292853f,-1.0519857f, 0.2673343f, 0.5292678f,-0.0358815f,-0.2344957f, 0.1633936f, 1.7253988f, 0.0477896f, 0.0625271f, 0.2166742f, 0.7469090f, 1.2064586f, 1.1345280f,-0.3287359f },
        {  2.1048238f,-0.1651993f,-0.2242300f,-0.1768288f, 0.2028089f,-0.2972978f,-1.9391607f, 1.1199987f, 2.4497950f,-0.3463442f,-0.1165212f,-0.8541534f, 0.2024584f, 0.0105129f,-0.0561627f, 1.0823838f, 1.0282640f,-0.1510546f, 0.5241555f,-0.2101075f,-1.8151261f, 0.1265118f,-0.5855443f, 0.8698164f,-0.3542247f,-2.1970127f,-0.0280155f, 0.7759346f, 0.1672966f, 0.7264687f, 0.1198732f,-0.8592277f },
        {  0.1486232f, 0.0549698f,-0.0161963f, 0.0582226f,-0.0603404f, 0.0815228f, 0.0109955f, 0.0235085f, 0.1136240f, 0.1721998f,-0.3348628f,-0.4845793f, 0.0053750f, 0.0030750f,-0.0150413f, 0.1656299f, 0.4602005f,-0.0952093f,-0.2657403f,-0.0197233f, 0.4011165f, 0.1557026f,-0.2131856f, 0.3612810f,-0.2176002f, 0.2965591f,-0.0076938f, 0.2073373f,-0.0350668f,-0.3177554f,-0.1061631f, 0.7654300f },
        {  0.0956737f, 0.0248653f, 0.6733188f,-0.0155047f,-0.1416170f,-0.0196303f, 0.0485719f,-0.0739930f, 0.0406673f,-0.1771512f,-0.2200225f,-0.1536360f,-0.1009100f,-0.0403049f,-0.0861271f,-0.2275178f, 0.2850836f,-0.4293543f, 0.5899879f,-0.1440521f,-0.1692829f,-0.0828402f, 0.5232161f,-0.2036708f,-0.0628064f,-0.1026018f, 0.0092018f, 0.4500334f,-0.1265646f, 0.2235549f, 0.3345339f,-0.6009083f },
        {  0.0627655f, 0.4883135f, 0.8770644f, 0.1130912f,-0.1081472f, 0.0633013f,-0.6418079f, 0.1017714f,-0.6737034f, 0.2712480f,-0.1622178f,-0.0229336f, 0.0319166f,-0.1003932f,-0.0379338f,-0.4496027f,-1.5578557f,-0.6154952f,-0.9364582f, 0.7224854f,-0.9399545f,-0.1526113f,-0.1574235f, 0.7459697f,-1.4163197f, 1.2040311f, 0.0438091f,-2.2476096f,-0.5104368f,-1.1417314f, 0.0272294f,-3.1035979f },
        { -0.0641303f,-0.5936043f, 0.3292740f,-0.0788333f, 0.2694912f,-0.3773530f,-0.6795284f, 0.8751953f, 0.1960035f, 1.3769699f,-1.3837537f,-0.4684297f, 0.0839141f, 0.3211910f,-0.1454154f, 0.9793436f, 0.0965578f, 0.3932126f,-0.6879553f, 1.3086523f, 0.6702212f, 0.0940206f,-0.8413219f,-0.0479693f, 1.7341346f, 0.1847334f,-0.1567554f, 0.0445112f, 0.6496183f, 1.1820700f, 1.3055953f,-0.5085667f },
        {  0.7018008f, 0.0450782f,-0.1596310f,-0.1694220f, 0.7159944f,-0.0130504f, 0.6313623f,-0.2253422f, 1.5299134f,-0.0025590f,-0.0245384f,-0.1292555f,-0.0110859f,-0.0594774f, 0.0751569f,-0.1402141f,-0.5056095f,-0.0855072f,-0.2062231f, 0.0996933f, 1.2377044f,-0.0709381f,-0.1342853f,-0.4532474f, 0.0038894f,-3.3033504f,-0.0851791f,-0.1251752f, 0.0470515f,-0.2749221f, 0.3646371f,-0.3502604f },
        {  0.3318751f, 0.0699774f,-0.0652896f,-0.1088801f,-0.1043202f, 0.0086942f, 0.1117809f, 0.2035064f, 0.1144011f, 0.1379821f,-0.1776177f,-0.2942253f, 0.0137997f,-0.0129378f, 0.0765494f, 0.0075289f, 0.1612659f,-0.1054503f,-0.1273817f, 0.1924499f, 0.4981725f,-0.1322891f,-0.4923808f, 0.3774532f, 0.2319007f, 0.0230431f, 0.0754865f,-0.0639662f,-0.0130451f,-0.0393101f, 0.4179246f, 0.5028553f },
        {  0.2299354f,-0.2123848f, 0.3089139f,-0.1285759f,-0.3445527f,-0.0404666f,-0.1942344f, 0.3118629f,-0.2602087f,-0.2073103f, 0.1250318f, 0.0238479f,-0.0601827f, 0.1122003f,-0.1172728f,-0.5065688f, 0.6030837f,-0.1009938f, 0.5712033f,-0.3632465f, 0.3903631f,-0.1620898f, 0.5412275f,-0.1651276f, 0.1846022f,-0.4917301f,-0.0542357f, 0.3815223f, 0.1738937f,-0.3005413f, 0.0519315f, 0.0144997f },
        {  0.7284107f,-0.0843442f,-0.2336513f,-0.0522325f,-0.2658786f, 0.0614991f,-0.9513304f,-0.6972609f, 0.2857150f,-0.4109965f,-0.8548187f,-1.4039176f,-0.0344035f,-0.2094323f,-0.0084069f, 0.3049914f,-0.7084358f, 0.1960539f,-0.2898136f,-0.9060137f, 0.2381530f, 0.1349022f,-0.2343068f, 0.3226347f,-0.9353580f, 0.1579424f, 0.1640070f,-0.0936077f, 0.0061987f,-2.0633702f,-0.4639539f,-0.1225946f },
        {  2.5602539f, 3.5837898f, 2.6629477f,-0.1551689f, 1.6919724f,-2.2310524f,10.9424810f,-1.5738194f, 3.0353477f,-1.5972518f, 4.9395442f,-5.5149975f, 7.4070287f, 7.0582061f,-0.0434563f,-1.9698453f, 3.4620848f, 0.1590875f, 4.2181225f,-3.3737206f, 0.8864644f, 0.1412155f,-2.6988595f,-8.8398695f, 2.3246727f, 0.7470644f,-21.8318405f, 1.3674546f,-10.3831539f, 7.8951125f,-5.7944694f,-1.2592840f },
        {  0.0970516f,-0.5453462f, 0.3981231f, 0.0446527f, 0.3691662f,-0.2799535f,-0.4802533f, 0.7889284f, 0.2030597f, 1.5018277f,-1.6120300f,-0.1599305f,-0.0105795f, 0.2205648f, 0.0868183f, 0.8591223f, 0.2222087f, 0.3902407f,-0.9456402f, 1.4357969f, 0.4856751f,-0.1194160f,-0.8395181f, 0.1731218f, 1.7148856f, 0.1648489f, 0.0116129f,-0.0849745f, 0.6533325f, 1.3233956f, 1.4998510f,-0.5596709f },
        {  0.5718234f,-0.0194335f,-0.2449866f, 0.1039593f, 0.7993248f,-0.0101795f, 0.7615515f,-0.1313825f, 1.5493232f,-0.0345088f,-0.0463139f,-0.3184509f,-0.1011098f, 0.0116242f, 0.1146637f,-0.2014206f,-0.4824278f,-0.0917379f,-0.3941739f, 0.1122272f, 0.9705354f,-0.0628912f,-0.1236028f,-0.5258070f, 0.0161557f,-3.1932321f, 0.0958081f,-0.1984376f,-0.0675832f,-0.0714429f, 0.4646528f,-0.0885698f },
        {  0.1755629f,-0.1241960f,-0.1101356f,-0.0153059f,-0.1399561f,-0.0370974f, 0.2269387f, 0.1662261f,-0.0487663f, 0.1278169f,-0.1244053f,-0.2987504f,-0.0650639f, 0.0128924f, 0.0220332f, 0.0285118f, 0.0404666f, 0.0314129f,-0.1339116f, 0.2874764f, 0.3215848f, 0.0472555f,-0.3218417f, 0.2373880f, 0.1077249f, 0.1303380f,-0.0635200f, 0.1122707f,-0.1019794f,-0.1192879f, 0.4136369f, 0.5065432f },
        {  0.2327623f, 0.0496063f, 0.3694985f,-0.1793082f,-0.2151573f,-0.1108511f,-0.2181580f, 0.5736078f,-0.4311372f,-0.0159880f, 0.0127796f,-0.1718076f, 0.0882141f, 0.0977106f,-0.1334262f,-0.4343985f, 0.4381656f,-0.2641136f, 0.4206854f,-0.3513220f, 0.1903141f, 0.0012827f, 0.3690043f, 0.0888604f, 0.3882276f,-0.4866717f, 0.0487295f, 0.2916216f, 0.0831459f,-0.4028619f, 0.1496415f, 0.2313445f },
        {  0.7226259f,-0.0193133f,-0.2115684f, 0.0364868f,-0.3985825f, 0.1168028f,-1.1545211f,-0.5902278f, 0.2523445f,-0.3468643f,-0.6782945f,-1.5938784f,-0.0610622f,-0.0559662f,-0.1281284f, 0.3080552f,-0.5470710f, 0.3716002f,-0.5500059f,-0.6252451f, 0.3215384f,-0.0286360f,-0.5031778f, 0.3270374f,-0.9890467f,-0.1262548f, 0.0780175f,-0.0895426f,-0.0423110f,-1.8996545f,-0.2318783f,-0.0916060f },
        {  0.0839346f,-0.6217079f, 0.1363845f,-0.0550964f, 0.5181718f,-0.4405645f,-0.9610457f, 0.5839671f, 0.1586868f, 1.2325931f,-0.4232611f, 0.0264236f, 0.2986966f, 0.1276681f, 0.1468820f, 1.0840361f,-1.0494370f, 0.3855213f, 0.1583781f, 0.7971076f,-0.2514287f,-0.0199372f, 0.4881256f,-0.6332564f, 1.2481241f, 0.3482015f, 0.1081027f,-0.5017077f, 0.5082603f, 1.6609700f, 0.5939353f,-1.4892657f },
        {  0.5235375f,-0.0126710f,-0.7567072f, 0.0225415f, 1.2238166f, 0.0985161f, 0.1356895f,-0.6039006f, 2.7323956f,-0.1801370f,-0.0587731f, 0.3773643f,-0.1586042f,-0.2774471f,-0.0351716f, 0.4851598f, 1.5092338f, 0.3340600f, 0.4321525f, 1.3542671f, 0.4392375f,-0.0310747f, 0.7899553f, 0.8224151f,-0.0037228f,-2.5821834f, 0.0055777f,-0.8155013f,-0.5368454f,-0.5018747f, 0.6268437f, 1.2548385f },
        {  0.0195741f, 0.0933827f,-0.0402030f,-0.0685673f, 0.1968977f,-0.1453037f, 0.1674573f,-0.0098162f, 0.2145390f,-0.0901704f,-0.0919776f, 0.0145172f, 0.0296696f,-0.1544595f,-0.0135021f,-0.1888661f,-0.5688506f, 0.0614021f, 0.3502446f, 0.3213629f,-0.7519476f,-0.1112956f, 0.4891189f, 0.1815204f,-0.0761709f, 0.0435950f,-0.0076443f,-0.2839908f,-0.0473320f,-0.1711539f,-0.2972206f,-0.3744022f },
        { -0.3801280f, 0.1312586f, 0.0086144f,-0.1415854f, 0.0822560f, 0.1482816f,-0.3393171f, 0.0759707f,-0.2742732f,-0.1808337f, 0.1859646f,-0.0391242f,-0.0061816f,-0.0152287f,-0.0729000f,-0.1873946f,-0.7372798f, 0.1734617f,-0.6405747f, 0.0598753f,-0.0131287f,-0.0143544f,-0.6086817f,-0.1114881f, 0.3177725f,-0.8785465f,-0.0164931f, 0.2149505f, 0.0755165f,-0.1739863f, 0.0158611f, 0.2711648f },
        { -0.3840064f, 0.0091629f,-0.6159120f,-0.1511098f, 0.1216256f, 0.0754610f,-0.7289171f,-0.9914891f, 0.2112645f,-1.3302529f,-0.6240647f,-0.8744773f, 0.3228129f, 0.0498990f,-0.0907855f, 0.1245423f,-0.8222537f, 0.4511014f, 0.5336586f, 0.3190874f, 0.8308911f, 0.0006749f,-0.0384587f,-0.9339335f,-0.2544466f, 0.0349127f, 0.0373695f,-0.2518825f, 0.1773885f,-0.0793128f, 0.3405429f,-0.9331988f },
        { -0.5842305f,-0.8380784f,-0.0615150f, 0.0271806f, 0.6654227f,-0.2702183f,-1.5043817f, 0.6130376f, 0.6937426f, 0.8703946f,-0.7658447f, 0.4877519f, 0.0155393f, 0.2104268f, 0.0807625f, 1.7760236f,-0.6376551f, 0.4748475f,-0.0615720f, 0.3730499f, 0.1258992f, 0.1551418f,-0.0273191f,-2.1773739f, 1.5561304f, 0.4244993f, 0.0345142f,-0.9667181f, 0.5486729f, 1.6348486f, 0.4024139f,-1.6951472f },
        {  3.6019621f, 0.0317233f,-0.4863496f,-0.0679726f, 1.4569254f,-0.0023246f,-0.0670157f, 0.0187335f,-0.6842494f, 0.0955118f, 0.0673233f, 0.4990292f, 0.0553259f,-0.0823655f,-0.0042578f,-0.1635514f, 0.1230530f, 0.4444032f,-0.6328025f,-0.1809150f, 4.4873238f,-0.0222701f, 0.3842182f,-0.2231180f, 0.0979032f,-1.9713258f, 0.0009867f,-0.7160649f,-0.0803328f, 0.5000328f, 0.4922255f, 0.0116143f },
        { -0.3995673f, 0.0071885f, 0.2022595f, 0.1256577f,-0.0359184f, 0.0958560f,-0.2363310f, 0.0029014f, 0.2358481f, 0.0853588f, 0.3113447f, 0.0984736f,-0.0237788f, 0.0562647f, 0.0277949f,-0.1948359f,-0.0499297f, 0.0497235f, 0.2747812f,-0.0505807f,-0.2131066f, 0.0728705f, 0.1796639f,-0.5709044f,-0.0814113f, 0.2953969f, 0.0022471f,-0.2954456f, 0.0509298f,-0.0235719f,-0.3404478f,-0.5283747f },
        { -0.1781259f,-0.0207188f,-0.6291212f,-0.0387432f,-0.0713735f, 0.0791264f, 0.5509318f,-0.0114264f,-1.1602619f, 0.2638823f, 0.1474680f, 0.3123781f, 0.1068898f,-0.0064973f,-0.1326883f, 0.4965660f,-0.4699176f, 0.5967547f,-0.9141377f,-0.1128939f,-0.2850281f, 0.0940569f,-0.0858301f, 0.6001734f,-0.2279569f,-1.0112878f, 0.0119808f,-1.1358424f,-0.0201583f,-0.0092859f,-0.3445942f, 0.3247397f },
        {  0.2043942f,-0.0624504f,-2.3513007f, 0.0013557f, 0.1649124f, 0.3485356f, 2.3193130f,-0.8462343f, 0.1773571f,-0.4396155f, 0.6651820f,-0.4913388f, 0.4736089f, 0.2854434f, 0.1320204f, 0.0147009f,-0.1424037f, 0.1644582f, 0.7848363f, 0.3950981f,-1.0567377f,-0.1723188f,-0.0581156f,-1.1874233f,-0.0962434f, 0.0437611f,-0.3376993f,-0.0622256f, 0.2534575f, 2.5119197f,-0.5861295f,-0.7270069f },
        { -2.5515485f, 4.5831699f,-2.1904361f, 0.1051999f, 3.9000113f, 1.6564198f, 6.8105006f, 2.3846400f,-2.3591542f, 3.1952593f,-2.9180200f, 0.7880092f, 3.6305795f,-2.4493682f, 0.1055369f, 2.1252890f, 0.7907665f, 3.7439818f, 0.0313942f,-4.6681466f,-0.2029599f,-0.0206735f,-2.8993337f,-3.7273505f,-1.5052834f,-1.9997735f, 3.5674486f,-1.8781773f,-2.7199326f, 6.3414412f,-1.8243704f,-0.8577446f },
        { -0.5435075f,-0.7275972f,-0.1411124f, 0.1308209f, 0.3657510f,-0.1035842f,-0.9642597f,-2.1750648f, 0.0485023f,-0.2370060f,-1.3114802f, 2.6878309f, 0.5950474f, 1.0676630f, 0.1612140f, 1.1142478f,-0.1348065f,-0.1720129f,-0.9987618f,-1.5062994f, 0.3624175f, 0.1654593f, 0.1709546f,-0.0472782f, 2.1012700f, 0.0282314f,-0.0696986f, 0.0790264f, 0.7135145f, 1.4625398f, 1.0187702f,-0.4333875f },
        { -0.6344113f, 0.1791654f, 0.5834618f, 0.0420826f, 0.5292229f, 0.1418660f, 0.3443485f,-0.3339265f, 2.3040466f,-0.1728426f,-0.0282516f,-0.1214578f,-0.0707249f,-0.0286907f, 0.1257833f,-0.2529917f,-1.0891449f, 0.0334963f,-0.1998019f,-0.3025236f,-2.4735477f,-0.0451428f, 0.2199881f,-0.6494649f, 0.1128032f,-2.3272049f,-0.0006683f,-0.4998662f, 0.0392337f,-0.2456261f,-0.6455131f,-0.5513478f },
        {  0.1838106f,-4.2565069f, 1.5187713f, 0.1187415f,-0.9950783f, 2.3238451f,-1.5256174f,-1.8171082f, 0.3926123f, 2.4715540f, 1.1050987f, 0.1810451f, 0.7176619f,-3.1490724f, 0.0698273f,-1.1997397f, 0.0560811f,-3.1696537f,-0.3547982f, 0.3060093f,-0.6934561f, 0.0314884f,-0.0047067f, 1.5616654f, 1.7830954f, 0.1207485f, 1.3659120f, 0.0743876f, 3.7333322f,-2.6072149f, 3.2326276f,-2.2388618f },
        { -0.5687087f, 6.1967006f, 0.4929143f, 0.1105646f,-0.5600107f,-7.5328784f,-5.6825814f,-0.3517581f,-0.5763903f,-4.0273519f,-5.8007121f, 0.7597180f,-5.9829369f, 7.2062883f, 0.0190344f, 3.7794576f, 2.8366861f, 3.2108309f, 1.6334511f,-0.1110794f,-1.9203734f,-0.0317988f, 3.2791934f, 0.3700962f,-5.0290947f,-1.1834668f, 1.3965178f,-3.3179703f,-5.5996342f,-0.0473790f, 2.3143163f, 0.1940913f },
        {  0.0692538f,-2.5384309f, 0.8627077f, 0.1417439f,-0.5000908f, 1.9264096f, 1.7960016f,-2.4556150f, 0.5667979f, 2.2803321f, 2.6679547f,-0.9841772f, 2.1727505f,-1.1746881f,-0.1368596f,-1.6776462f, 0.9480426f,-2.5220249f,-0.0155748f, 0.4940852f,-0.3443123f,-0.0326964f,-1.1121775f, 0.3487845f, 2.1116896f, 0.1272426f,-2.2423997f, 0.0216479f, 1.5069449f,-0.3577963f, 1.2394208f,-2.5622232f }
    };
    CUDA_CONST_VAR const float bias_2[32] = {
        2.8885627f, 0.2671668f, 1.3829085f,-0.0628990f, 1.8491973f,-0.8242593f,-1.6220511f,-1.1029294f, 2.1726842f,-0.2771132f,-1.2278795f,-0.1381417f, 0.4868728f, 0.0840024f,-1.3783303f, 1.1966361f,-2.5703247f,-0.0040514f,-0.1646785f,-0.8528354f, 0.5787972f, 0.8891931f, 0.9941705f,-1.2635596f, 1.2010837f, 0.0008944f, 0.9239216f,-2.3879993f,-0.2323342f,-0.1905672f, 0.1603167f,-0.0678800f
    };
    CUDA_CONST_VAR const float wgtT_2[32][32] = {
        { -0.0711206f, 0.0623599f, 0.1323483f,-0.0845116f, 0.0299203f, 0.0164843f, 0.0482021f,-3.2440965f, 0.0014533f,-0.0956634f,-0.0683887f,-0.0071602f, 0.0174250f,-5.9415808f, 0.1912046f, 0.0044170f, 0.0228503f,-0.2135506f,-0.1550450f, 0.6795719f, 0.0030747f,-0.0026370f, 0.0553603f, 0.0188097f,-0.1606434f,-0.5258651f,-0.2117843f, 0.0084255f,-0.0740513f,-0.3069138f,-0.3650034f, 0.1918327f },
        { -1.0513948f,-0.6563837f,-0.4170459f, 0.5623649f,-0.8975258f, 0.0755609f, 0.1521421f, 0.0075688f,-1.8926493f,-0.2063313f, 0.2836982f,-0.2580180f,-1.6722283f, 0.6886399f,-0.2355203f,-0.8599799f, 0.4854730f,-0.2289213f, 0.0574199f,-0.4898813f,-1.0778195f,-0.9402232f, 0.7756748f, 1.3365133f, 0.0318266f,-0.9924152f,-0.8519551f, 0.9532003f, 0.0069718f,-0.3141717f,-1.5057442f,-1.1548103f },
        { -0.2302766f, 0.0816897f, 0.0220352f, 0.1183337f, 0.0222108f,-0.1714570f, 0.3410316f,-0.7436075f,-0.5274497f,-0.2179988f,-0.3199216f,-0.2897166f, 0.1749692f,-0.8081787f,-0.2542128f, 0.0384636f,-0.3097500f,-0.0193422f,-0.2049568f,-0.1887348f,-0.0065369f, 0.0404624f,-0.9094306f, 0.0113176f, 0.0686914f,-0.2447223f, 0.0305586f,-0.0219155f,-0.2599675f,-0.0818855f,-0.5771868f, 0.1054004f },
        { -0.0213695f, 0.0596942f,-0.0641309f,-0.0146449f, 0.0416586f,-0.0378931f, 0.1234860f, 0.1622967f, 0.0794091f,-0.0639933f,-0.1030663f, 0.0579078f, 0.1050275f,-0.0136866f, 0.0149978f, 0.0876813f, 0.0693554f, 0.1612417f,-0.0595916f,-0.1008234f,-0.0579058f, 0.0915138f, 0.1321436f,-0.1484535f,-0.0920316f,-0.0024532f,-0.1045300f, 0.0924260f, 0.0277524f,-0.0287276f,-0.1271127f, 0.1164243f },
        {  0.0713067f, 0.0198056f,-0.3023696f,-0.0025908f,-0.0085885f,-1.1157553f, 0.0236462f,-0.0704844f,-0.0189257f,-0.0997382f, 0.3379845f,-0.1229390f,-0.0616165f,-0.8968034f, 0.0401445f,-0.1144476f,-0.0532077f, 0.0604580f, 0.0609454f,-0.1613472f, 0.0103525f,-0.1653874f, 0.0205189f, 0.0758978f,-0.1514593f, 0.0151441f, 0.2043469f, 0.0349607f,-0.1361278f,-0.1255922f, 0.0631648f, 0.3570991f },
        { -1.3371850f,-0.8326246f, 0.9665084f,-0.3652583f, 0.3412984f,-1.9321069f,-0.5679217f, 0.1450788f,-0.1227331f,-0.0093539f, 1.8086761f,-0.0522417f, 1.6995690f, 0.2532652f, 0.4752825f, 0.7066962f,-0.1859123f,-0.1876569f,-0.1673744f,-0.8137276f, 1.2804872f, 0.9873918f,-1.0064389f,-1.4830827f,-0.6841350f,-0.7073608f, 1.2463254f,-1.2794245f,-0.3587223f,-0.2995245f,-1.7399434f,-0.2420625f },
        { -0.4184486f,-0.0263819f,-0.7738007f,-0.2998533f, 0.3875146f, 0.5971080f,-0.3107004f,-0.6096900f, 0.2702836f,-0.1218249f,-0.0390612f,-0.0719826f, 0.0785212f,-0.5183771f, 0.0310930f,-2.0366228f,-0.2623893f, 0.0581405f,-0.2595585f, 0.0054043f, 0.1384237f,-1.7213868f,-0.2678186f,-0.3311231f, 0.3420875f,-0.1572338f,-1.3495599f,-0.0915511f,-0.2271978f,-0.0806051f, 0.2246383f,-2.2657750f },
        {  0.2024096f,-0.0191819f,-0.2728930f, 0.6343168f, 0.0742881f, 0.0200249f,-0.1157349f, 0.0182293f,-0.2341844f,-0.1402464f, 0.9278651f,-0.0564056f,-0.0894085f,-0.3572986f,-1.2267181f, 0.0437357f, 0.3885489f,-0.1335654f,-0.1344855f,-3.7620151f,-0.0449765f,-0.0201044f, 0.0758802f,-0.0511752f,-0.7956540f,-0.3138673f, 0.0102017f,-0.0161949f,-0.0840887f,-0.2270164f,-0.1849007f,-2.5335338f },
        {  0.0837488f,-0.2087640f,-3.7288623f,-0.2722030f, 0.0652002f, 0.0477349f,-0.4967822f,-2.5624895f,-0.9921193f,-0.0879600f, 0.1525389f, 0.0280064f, 0.0013845f,-0.2687733f,-5.0038424f,-0.0767232f,-0.2525673f,-0.0282545f,-0.0217915f,-0.2143156f, 0.0059231f, 0.0796242f,-0.0487012f,-0.0383934f,-0.0260994f, 0.2770087f, 0.3474790f,-0.0313061f,-0.1050563f, 0.0738489f,-0.1295150f,-0.1279165f },
        {  0.1443730f,-0.1732524f, 0.1485156f, 1.2995820f, 0.0482784f, 0.1571260f,-0.5083032f,-1.8864664f,-0.0273659f,-0.0590394f, 0.0608211f,-0.2422228f, 0.1388262f,-0.4787678f,-0.9622944f, 0.0598023f,-0.2215877f,-0.1300649f, 0.0668169f,-0.8000351f, 0.1243668f, 0.1282052f,-0.7717657f,-0.2743784f,-2.4071810f, 0.1092275f,-0.2213343f,-0.0940348f,-0.0493918f,-0.3224248f, 0.3425716f, 0.0321337f },
        {  0.0844281f,-0.6406407f,-0.6013367f, 0.7580468f, 0.2139345f,-0.5066468f, 0.1956504f,-1.5104322f,-0.3148883f, 0.0528602f,-2.0057166f,-0.0869130f, 0.0438608f, 0.6926086f,-0.6656887f,-0.1458706f, 0.8525653f, 0.1211179f, 0.1029776f,-1.6997956f, 0.1752557f, 0.0221568f, 0.6278155f,-0.0723077f,-0.8399354f,-0.2153035f,-0.1036183f,-0.0308177f,-0.0576767f,-0.0904307f, 0.1578875f, 1.7499988f },
        { -0.3052405f,-0.1728415f, 0.1383425f,-0.8584704f, 0.0720103f,-0.0127898f,-0.0009987f,-0.1092561f,-0.2814790f, 0.0455465f,-0.3828086f,-0.0764131f, 0.0433382f, 0.6261829f, 0.6086743f, 0.0321473f, 0.2307873f,-0.1597013f,-0.0293466f,-0.6948208f, 0.0271991f,-0.0236075f,-1.2468383f,-0.0380613f, 0.1862487f,-0.4113401f,-0.0395457f,-0.0288344f, 0.0170807f,-0.3413893f, 0.1925887f, 0.5745597f },
        { -0.7105815f, 0.1948130f,-0.2946545f,-0.4686541f,-0.1067736f,-1.4394022f, 0.3651389f, 0.7671586f,-0.7302960f,-0.1017482f, 0.4302594f,-0.2528057f, 1.4732718f, 0.0899938f, 0.2171253f,-0.2255651f, 0.6352410f,-0.1678239f,-0.2710533f, 1.1453094f, 0.8537799f, 1.1774641f,-2.8887010f,-1.4383322f,-1.0357159f,-0.6116336f,-1.3621662f,-1.1302098f,-0.1057212f,-0.3090037f,-0.6288211f, 0.3579296f },
        {  0.4670987f, 1.7663535f,-1.0599157f,-0.8010935f,-1.4084061f, 0.3340003f, 0.5276083f, 0.0511834f,-1.6812758f,-0.0378498f, 0.0654716f,-0.0355969f,-2.8904831f,-0.8069890f, 0.8369429f,-1.3395358f,-1.8569900f,-0.1845744f,-0.0439394f,-0.8619221f,-2.0285490f,-1.3371533f,-1.4160525f, 2.2828827f, 0.3625011f, 1.3815184f,-0.8245605f, 1.9703324f, 0.0591937f,-0.0497568f,-0.5481796f,-0.0114895f },
        { -0.0780375f,-0.0286571f, 0.1007227f, 0.0012229f,-0.0531285f, 0.0840718f, 0.1013894f, 0.1312424f,-0.0673772f, 0.1603183f, 0.0074385f,-0.0718321f,-0.1549873f, 0.1616689f, 0.0405887f,-0.1558588f, 0.0740745f, 0.1696893f,-0.0064026f,-0.1656420f,-0.1186674f,-0.1262667f,-0.0784757f,-0.1280154f, 0.0909976f, 0.0853046f,-0.1075811f, 0.1310615f, 0.0610194f, 0.0647223f, 0.1360559f, 0.0440074f },
        { -0.1510567f,-1.4509389f, 0.0499453f,-1.0224513f, 0.2152669f,-0.6108272f, 0.2719799f,-1.1272987f,-0.6278699f,-0.0651806f,-0.9958825f,-0.2682364f,-0.1681360f,-0.0200203f, 0.6734895f, 0.0100685f,-0.0967247f,-0.1236272f, 0.0017366f,-1.6892062f,-0.0493086f,-0.0842017f,-0.1486816f, 0.0991545f,-0.9281441f,-2.9004514f,-0.5061681f, 0.0824004f,-0.0362911f, 0.1111639f, 0.8934246f,-1.5277572f },
        { -1.1325527f,-0.0127224f,-2.4525437f,-0.6538543f, 0.1616277f, 0.7286677f,-0.8575903f, 1.0698589f,-0.0235659f,-0.1009826f,-0.1982054f,-0.0246789f,-0.1477472f,-0.8400803f,-0.5462000f,-1.3686119f,-0.5657223f, 0.0801714f,-0.0675797f,-0.4794144f,-0.0445733f,-0.1775396f, 0.2007323f,-0.1203749f,-0.8496221f, 1.7337319f,-0.4665329f, 0.1265258f,-0.1329702f,-0.1744210f,-0.0687831f,-0.7742285f },
        { -0.1788257f, 0.1542229f, 0.3052341f, 0.2862065f,-0.4854445f, 0.2352856f, 0.4361152f,-0.1713333f, 0.7140318f,-0.0624896f, 0.1339704f,-0.0675419f,-0.4335253f, 0.0686136f,-1.1076112f,-0.1192892f, 1.2419795f,-0.2725933f, 0.1200988f, 0.6599445f,-0.3493672f,-0.3198723f,-2.0004041f, 0.5206469f,-6.6565332f, 0.4037670f,-0.1700207f, 0.4296934f, 0.0340819f,-0.0376306f, 0.9572847f, 1.0334834f },
        {  0.5944152f,-0.4781806f,-0.5234523f, 0.5304911f, 0.1418554f,-0.1161231f,-0.0109858f, 0.4508818f,-1.4507960f,-0.0180790f,-0.8821902f, 0.0729601f,-0.2063358f,-1.6330122f,-3.5067906f,-3.5302153f,-3.5472362f,-0.0245507f,-0.1184207f,-2.1831651f,-0.1272378f,-2.5805657f, 0.6980386f, 0.0328277f, 0.0519132f, 0.2516104f, 0.1167887f, 0.0496288f,-0.1804213f, 0.0281711f,-0.5158054f,-2.5359576f },
        { -0.1692938f,-1.8112719f,-0.2283955f, 0.6362650f, 0.2110287f, 0.1153827f,-0.3368783f,-1.1032107f,-1.2140025f,-0.1204695f, 0.0693630f, 0.0623910f,-0.0190916f,-0.3376639f,-1.6616604f,-0.0542117f, 0.1157284f,-0.2010069f,-0.1367036f,-2.0179436f, 0.0611942f, 0.0272206f, 0.1628413f, 0.0148600f,-0.2059049f,-0.1669948f, 0.2686659f,-0.0190187f,-0.0115795f,-0.1503223f,-0.4058048f,-3.3921554f },
        {  0.1777759f, 0.2160891f, 0.0783717f, 0.0692566f, 0.2802207f,-0.9002248f, 0.5001124f,-1.7359325f,-1.2729355f, 0.0442428f,-0.0828601f, 0.0837191f, 0.0020155f,-2.7254336f,-0.1007140f, 0.0195537f,-0.3840600f, 0.0331080f, 0.0596354f, 0.3601998f,-0.0099317f,-0.0201584f,-0.0386133f,-0.0005084f, 0.7280881f, 0.0926946f, 0.0150148f,-0.0044498f,-0.0978771f, 0.0062555f,-1.7252109f, 0.1816486f },
        { -0.0398742f, 0.1075264f, 0.1725024f,-0.0755192f,-0.0360048f, 0.1325573f, 0.0903103f,-0.0882263f, 0.1207692f, 0.0032722f, 0.0048489f,-0.1257241f, 0.1450990f,-0.0713558f, 0.1116815f, 0.1107689f,-0.1447252f, 0.1581838f,-0.0160124f,-0.0425587f, 0.1411217f, 0.0865060f,-0.0643460f,-0.0431262f,-0.1452804f,-0.0195101f, 0.1234572f, 0.0520887f, 0.1117576f,-0.0751791f, 0.1511539f, 0.1224861f },
        {  0.6959767f,-0.3172786f, 0.3314173f,-0.9869514f, 0.0844743f, 0.3043091f,-1.4342064f, 0.6370360f,-1.6185195f,-0.1609414f,-0.6884685f,-0.2238352f,-0.5108401f,-3.0360527f, 0.9103494f, 0.0544204f,-0.5069030f,-0.1428799f,-0.3386867f,-0.8754415f,-0.2810560f, 0.0071785f,-1.4745575f,-0.1212574f, 0.2935719f,-0.2426622f,-0.2203128f, 0.0434890f,-0.0553588f,-0.1616932f,-0.7626368f,-3.7705855f },
        {  0.4761853f, 0.3925991f, 0.0334335f,-0.5212172f,-0.0455484f, 0.5044403f,-0.2440162f,-0.1716287f, 0.5904726f,-0.0774637f, 0.1845588f,-0.1345398f, 0.0539091f,-0.3584711f,-0.0681174f, 0.0729936f,-0.4241271f, 0.0449603f,-0.1817476f, 0.3332648f, 0.0243501f, 0.0616503f, 0.9082951f,-0.0955946f,-0.1881463f,-0.4897973f, 0.0238737f,-0.0192050f,-0.0149592f,-0.2287960f,-1.0785987f,-0.9548752f },
        { -3.0284972f,-0.6425982f, 0.2190792f,-0.4597042f, 0.1740953f,-0.8177704f, 0.1261122f, 0.9473205f,-0.2391639f, 0.0556869f, 0.0198205f,-0.0016575f, 0.2070394f, 0.0197328f, 0.3572481f,-0.0288861f,-3.4786258f,-0.1582915f,-0.1860919f,-1.2093034f, 0.2333524f, 0.0878582f,-0.2204238f,-0.1366659f,-1.4967102f,-0.4015259f, 0.0853805f,-0.1637111f,-0.1456912f,-0.0410253f,-1.8584831f,-1.7352234f },
        {  0.0847502f, 0.0868577f,-2.4591124f, 0.0081610f, 0.0354738f, 0.0223305f,-0.5179468f,-2.1214118f,-0.0555377f, 0.0252329f, 0.1331390f, 0.0430625f, 0.0256738f, 0.0449131f,-2.9300683f, 0.0404677f,-0.0914138f, 0.0274977f,-0.0903500f, 0.1283432f, 0.0233338f, 0.1162729f,-0.1101481f,-0.0484674f,-0.0691352f,-0.2536006f, 0.2670435f,-0.0588443f, 0.0357601f,-0.0292193f,-0.3242431f,-0.1275230f },
        { -10.0731220f,-12.3934135f,-2.1643350f, 0.5832236f,-2.2496476f,-0.1207186f, 2.1161268f, 0.2079314f,-0.5144771f,-0.2171030f, 0.4791935f,-0.1459229f, 0.2542455f,-0.0732661f,-0.2391949f,-5.3205252f, 0.0502103f,-0.0857969f, 0.0733137f, 0.9795148f,-0.2503226f,-2.5415292f,-5.1660748f, 0.5681887f,-1.9276005f, 0.3335965f,-1.0867094f, 0.1362483f, 0.1766361f,-0.0791530f, 0.2983015f, 0.3728908f },
        { -2.2230582f,-0.1178485f,-1.5558996f,-1.2412478f, 0.0455351f,-4.6185679f,-0.4209914f,-2.6764827f, 0.6843948f, 0.0208618f,-1.4893378f, 0.0989317f, 0.0176688f,-1.6619793f,-0.0937159f,-2.7106836f, 0.1693199f,-0.0404727f,-0.0609481f,-0.2384449f,-0.0113003f,-2.9735348f, 0.5186783f, 0.0900016f,-0.8964463f,-0.1047357f,-0.0530471f,-0.0141502f,-0.0371647f, 0.0295600f,-0.4524401f,-0.1926693f },
        {  0.1929674f,-0.5927492f, 0.4234512f,-0.6348612f, 1.1246653f, 0.6816468f,-0.3429784f, 0.1512892f, 0.6102869f,-0.0654911f,-0.0796916f,-0.2437161f, 0.6289185f, 0.4255328f, 0.3694939f, 0.8111743f,-0.3143453f,-0.1939137f,-0.1539735f,-0.3632470f, 0.6808379f, 0.3022949f,-0.2571901f,-0.8394510f, 0.7902171f, 0.4974974f, 0.8342406f,-0.5180731f,-0.2951850f,-0.0212278f, 0.0387811f,-0.4175164f },
        { -0.8934470f,-0.8019977f, 0.3708845f,-0.3867873f,-0.0901380f,-0.8222827f,-0.0744843f, 1.3341714f, 0.1576103f, 0.0009324f, 0.6405855f,-0.0373117f,-0.0381663f, 0.9339087f, 0.3464070f,-2.0388978f,-0.0150846f, 0.0706465f,-0.1080966f, 0.9745817f,-0.0130482f,-1.6661922f, 0.0091742f,-0.0930208f, 1.0240427f, 0.5824239f,-0.1154510f,-0.0814473f,-0.1455800f,-0.0922198f, 0.2103876f,-2.5205953f },
        {  0.5258815f, 0.2342797f,-0.4073344f, 0.2576680f, 0.1069947f, 0.1941618f,-0.1023231f,-0.4246831f, 0.2520861f,-0.0516545f, 0.1487453f,-0.0065706f,-0.0491867f, 0.2858358f,-0.2578144f,-0.0372272f,-0.0331886f,-0.1299917f,-0.1931891f, 0.0755804f,-0.0771416f, 0.0107289f,-0.0228409f,-0.1191811f,-3.1864369f,-0.5574285f, 0.7117177f,-0.0322262f, 0.0604511f,-0.4307863f, 0.3628827f,-0.6994375f },
        {  0.0046978f,-0.1397355f,-0.8341301f,-0.3389797f,-0.1490567f, 0.0873582f,-0.2221712f, 0.3979098f, 0.0341630f,-0.1506968f, 0.4928029f,-0.0494542f,-0.0927455f,-0.5341251f,-0.2718338f, 0.0379886f, 0.2234694f,-0.2502540f,-0.1737561f,-0.3926498f,-0.0170504f,-0.0228851f,-0.8306080f, 0.0572083f,-0.5149944f, 0.7414448f, 0.0791133f, 0.0339374f,-0.2717269f,-0.3055144f,-3.6719720f, 0.0948877f }
    };
    CUDA_CONST_VAR const float bias_4[1] = {
        1.0108557f
    };
    CUDA_CONST_VAR const float wgtT_4[32][1] = {
        {  0.0948555f },
        {  0.0950644f },
        {  0.0963693f },
        { -0.1362954f },
        {  0.0981517f },
        { -0.1300867f },
        { -0.0462044f },
        { -0.1099093f },
        {  0.0964520f },
        {  0.0302955f },
        { -0.0937739f },
        {  0.0137100f },
        {  0.3004365f },
        { -0.1250207f },
        { -0.1452602f },
        {  0.8177349f },
        { -0.0620075f },
        { -0.0388369f },
        { -0.0575484f },
        { -0.3426131f },
        { -0.6014882f },
        { -1.3677281f },
        {  0.1537223f },
        {  0.3849980f },
        {  0.0405964f },
        {  0.0604117f },
        {  0.0883758f },
        { -0.4994344f },
        {  0.0266123f },
        {  0.0021261f },
        { -0.0964301f },
        { -0.2287877f }
    };
    CUDA_CONST_VAR const float working_point = 0.6115213f;
}

#endif
