#ifndef NeuralNetworkWeights_cuh
#define NeuralNetworkWeights_cuh

#include <alpaka/alpaka.hpp>

namespace T5DNN {
  ALPAKA_STATIC_ACC_MEM_GLOBAL const float bias_0[32] = {
      -1.0152365f, 0.8934728f,  1.2596679f,  0.7323702f, 0.3100070f,  -0.2325916f, -0.5807199f, -3.3144693f,
      -0.4849883f, -0.0743575f, 0.2197228f,  0.8628783f, -0.5182869f, 0.4250112f,  0.4810609f,  0.4638714f,
      0.3797902f,  -0.9078161f, 0.5967655f,  0.3315324f, 0.0623165f,  0.8875262f,  1.0062385f,  -0.8217254f,
      0.1526322f,  -0.1181239f, -1.4791780f, 0.4146627f, 1.7104340f,  0.0352187f,  0.0723459f,  -0.8450372f};

  ALPAKA_STATIC_ACC_MEM_GLOBAL const float wgtT_0[6][32] = {
      {1.0819359f,  0.0250643f,  -0.8834701f, -0.1894168f, 0.5787868f,  -0.1717407f, 0.5417768f,  3.2458160f,
       -0.2523146f, -0.0729360f, 0.0880889f,  -0.0651846f, 0.3339210f,  0.1622967f,  -0.1025314f, -0.0816912f,
       -0.0533865f, 0.4214946f,  -0.1696134f, -0.1991466f, 0.0101582f,  -0.2875569f, -1.3475467f, 1.0914172f,
       0.0450491f,  0.3100290f,  -0.0247296f, -0.2515456f, -0.1611802f, -0.7523522f, -0.2962324f, -0.5550934f},
      {-0.1467232f, 0.7813413f,  0.9114456f,  0.5541579f,  0.5629549f, -0.1228619f, 0.9459320f,  -0.4582397f,
       -0.6763528f, -0.3755077f, -1.4567568f, 0.0468132f,  0.6047521f, -0.6607596f, 0.0238706f,  0.2474804f,
       1.1570834f,  0.8463898f,  0.1919330f,  -0.8186948f, 1.3750312f, -0.6553153f, 0.6052511f,  0.4897709f,
       1.3685681f,  -0.9900523f, 0.3497149f,  -0.0941541f, 0.2342678f, -0.3056706f, -0.5210595f, 0.8741930f},
      {0.5633914f,  0.1211429f,  -0.2253661f, -0.6586432f, 0.9269326f,  -0.3492835f, -0.7961361f, -2.4641342f,
       0.3013128f,  -0.4066231f, 1.0871313f,  -1.2222217f, 0.8738279f,  0.5547498f,  -1.5359063f, -0.6611922f,
       0.2090060f,  -0.3916861f, -1.4173540f, 0.6432776f,  -1.4130599f, 1.2357432f,  -0.6790983f, -0.2919609f,
       -0.9385961f, 0.8982229f,  -0.2124535f, 2.1091228f,  0.7258575f,  1.7742801f,  -0.0859819f, -0.3316230f},
      {-0.5387255f, -1.1300558f, -0.0008673f, 0.1770638f,  -0.9596074f, -0.1127035f, -0.0851381f, 1.5884343f,
       1.0859686f,  0.1812194f,  0.3391390f,  1.3370912f,  -1.1481495f, 0.0290767f,  1.5482770f,  0.2622001f,
       -1.4338324f, -0.4397199f, 1.2936909f,  0.2080823f,  0.0246322f,  -0.2633497f, 0.7070877f,  0.1920205f,
       -0.4497130f, 0.3020906f,  0.6584451f,  -1.9701278f, -1.0584720f, -0.5479419f, -0.0570958f, 0.1458360f},
      {0.0590706f,  -0.0460158f, 0.1707999f,  -0.1819669f, 0.6179200f,  -0.0921509f, -0.0042741f, 0.4456773f,
       -0.2956247f, -0.0249528f, -0.0020152f, 0.4247752f,  -0.0259845f, -0.1075024f, 0.0832217f,  -0.0555667f,
       0.0397361f,  0.0364693f,  0.0766077f,  -0.5594445f, 0.0045785f,  0.4798023f,  -0.0497356f, -0.0863921f,
       0.1183232f,  0.1427512f,  0.0211402f,  0.0020065f,  1.7219193f,  0.1019132f,  0.1685487f,  -0.5455744f},
      {-0.0054836f, -0.0088778f, -0.0052786f, -0.0347518f, -0.0010941f, -0.3458151f, 0.0064527f,  0.0006336f,
       -0.0027454f, -0.3283477f, -0.0058895f, -0.0001129f, -0.0059240f, -0.2533118f, -0.0012666f, 0.0284416f,
       -0.0016850f, 0.0175154f,  -0.0170769f, -0.0125767f, 0.0001601f,  -0.0116165f, -0.0024318f, -0.0154098f,
       -0.0017526f, -0.0121992f, -0.0034171f, -0.0028287f, 0.0006673f,  0.0015679f,  -0.0000657f, -0.0093336f},
  };

  ALPAKA_STATIC_ACC_MEM_GLOBAL const float bias_2[32] = {
      -0.0932543f, -0.0857981f, 0.0143133f,  -0.4710734f, -0.0576508f, -0.5087169f, 0.2709714f, -0.0028303f,
      0.2271184f,  0.0519681f,  0.4154890f,  -0.0018657f, 0.2750134f,  -0.2836973f, 0.1169372f, 0.4327253f,
      -0.0821115f, 0.4685302f,  -0.2552208f, -0.4373481f, -0.4014519f, 0.2226206f,  0.3209814f, -0.0641970f,
      0.4396082f,  0.5131001f,  0.0653658f,  0.4657257f,  -0.0668403f, -0.5936894f, 0.3315402f, -0.0403968f};

  ALPAKA_STATIC_ACC_MEM_GLOBAL const float wgtT_2[32][32] = {
      {0.3818573f,  -0.7302466f, -0.5092781f, -0.5866874f, -0.1582025f, 0.4459124f,  -1.6677992f, 0.9637610f,
       -0.5823832f, 1.8454031f,  1.5201329f,  -0.2082483f, 0.0420702f,  0.2387125f,  2.1149373f,  2.0469007f,
       -0.2744069f, 0.9097391f,  0.0385376f,  0.4463472f,  -0.6790963f, -0.3632759f, -1.7464666f, 0.2598507f,
       -1.2324227f, -0.6831416f, 0.1417603f,  -0.8496734f, -0.1280174f, -0.6326160f, -0.0333304f, -0.0753397f},
      {-0.2333516f, -0.6415513f, -0.1161816f, 0.5816590f,  0.2436400f,  0.0002523f,  0.0129295f, -0.1588270f,
       -0.1262578f, -0.2471555f, 0.4071388f,  -1.0974802f, -0.2798504f, 0.0078998f,  0.7117769f, 0.0058337f,
       -0.1866550f, -0.2504748f, -0.2296907f, 0.3509949f,  0.1356099f,  0.0976228f,  0.8160037f, 0.2489523f,
       -0.1966548f, 0.1632373f,  0.4150138f,  0.1637540f,  0.0155085f,  -0.0681293f, 0.0254714f, 0.1454867f},
      {0.4567545f,  0.8560683f, -0.2194156f, -0.4521438f, 0.3471951f, 0.3157155f,  0.2471598f, 0.1717289f,
       -0.1308791f, 0.6129348f, 0.2416532f,  0.1049534f,  0.1693209f, -0.3536341f, 0.7037366f, 0.2058470f,
       -0.4283097f, 0.6004134f, -0.1840710f, -0.0555619f, 0.2784603f, 0.3812846f,  1.2115899f, -0.0077096f,
       0.2211873f,  0.1586521f, -0.0837770f, -0.3266927f, 0.0407322f, -0.5502153f, 0.4732269f, 0.1683649f},
      {0.1019160f,  0.4796711f,  -0.6347731f, 0.0224055f,  0.0987169f,  0.5776441f,  0.2794443f,  1.2190173f,
       0.5319328f,  -0.0631284f, 0.6143941f,  -0.3279985f, -0.0975645f, -0.0411007f, -0.2923089f, 0.6286712f,
       -0.5626023f, 0.7450831f,  0.0980188f,  -0.3627499f, -0.1575758f, 0.2254542f,  -0.2947301f, -0.1329867f,
       0.0867898f,  -0.3338968f, 0.2972878f,  -0.3888619f, -0.1433883f, 0.4152721f,  -0.6601173f, 0.3641886f},
      {-0.1266620f, -0.0865599f, 0.4723409f,  0.4132061f,  0.3195395f,  0.1417422f,  0.1503591f, 0.1507142f,
       0.3041921f,  -0.0818969f, 0.1604099f,  -0.0777282f, 0.2106899f,  0.1766852f,  0.4899336f, -0.0682880f,
       0.4372096f,  -0.4390060f, -0.2082030f, 0.4853943f,  0.3254972f,  0.2118884f,  0.0421572f, 0.3923135f,
       0.1442152f,  0.2860185f,  0.0550216f,  0.5082350f,  -0.1567053f, -0.0331007f, 0.8844166f, 0.1183610f},
      {0.0466660f, -0.1659616f, 0.1679460f,  -0.1265274f, -0.1581595f, -0.0222544f, 0.1398726f,  -0.1755634f,
       0.0111353f, 0.0574019f,  -0.0771597f, -0.0666276f, 0.0727765f,  -0.0162430f, 0.0818752f,  0.0793812f,
       0.1285326f, -0.1216252f, 0.0677715f,  0.1614354f,  0.1652738f,  0.0135343f,  -0.1687149f, 0.0189100f,
       0.1210241f, 0.0905518f,  0.0417580f,  0.1213261f,  0.1278289f,  -0.0527743f, 0.0979251f,  0.0565833f},
      {0.1505933f,  0.1273676f,  -0.1123947f, 0.2142347f,  0.2284869f,  -0.3955915f, 0.1909055f,  -0.2749662f,
       -0.2292773f, 0.2945957f,  0.0423084f,  0.0047677f,  -0.5094488f, 0.0464614f,  -0.1510898f, -0.2324290f,
       0.6054819f,  0.0435354f,  -0.6434340f, 0.3549900f,  0.9857271f,  -0.1699502f, -0.3973968f, 0.0572355f,
       0.0714691f,  -0.0385933f, 0.1193948f,  -0.1489338f, -0.0274893f, 0.1346042f,  -0.1340296f, -0.2791739f},
      {-0.1006180f, -0.1118332f, -0.5348625f, 0.0650033f, -0.1036121f, -0.1479163f, -0.3084557f, -0.4921679f,
       -0.0053862f, -0.2491219f, -0.0860566f, 0.1755967f, -0.0845348f, -0.0343763f, -0.2306200f, -0.0929447f,
       -1.1830486f, 0.7637764f,  -0.2716052f, 0.1981598f, -0.3837036f, -0.3236652f, -1.4260921f, 0.0901268f,
       0.0268942f,  -0.4151386f, 0.2210876f,  0.2470356f, -0.1447999f, -0.6699240f, -0.2533455f, 0.0106550f},
      {-0.1907966f, 0.2756438f,  0.0034659f,  -0.3426934f, -0.2577639f, -0.3294950f, -0.0473627f, -0.1396521f,
       -0.3701049f, -0.0738414f, 0.0576053f,  0.3064466f,  -0.0063316f, 0.2449620f,  0.0019594f,  0.0750114f,
       0.0995916f,  -0.5852128f, -0.0004073f, -0.5455602f, -0.3498350f, 0.0691605f,  -0.0329876f, -0.3467339f,
       0.0295309f,  0.1030973f,  -0.1662789f, 0.1009636f,  0.1531837f,  0.4064289f,  -0.2762867f, -0.1415480f},
      {-0.0651738f, 0.1649153f,  -0.0913074f, 0.1095935f,  -0.0691795f, 0.1232347f,  -0.1494116f, -0.1384457f,
       -0.0699463f, -0.0165773f, 0.0331326f,  -0.0514903f, -0.0741885f, -0.0862094f, -0.1663020f, -0.0287902f,
       0.0691447f,  0.1296951f,  0.1495256f,  0.0155019f,  0.0885620f,  -0.0555511f, -0.1026121f, -0.1422297f,
       0.0578055f,  0.0612308f,  0.0590883f,  0.0491382f,  -0.1136042f, -0.0241003f, -0.1265459f, 0.0245077f},
      {0.2611749f, 0.9836090f,  1.6156983f,  -0.0554323f, -1.2743331f, -7.5784001f, -0.4601028f, 0.0093122f,
       0.0467427f, -1.4364706f, -3.0147331f, 2.1652727f,  1.6017364f,  -0.4925019f, -1.3738136f, -0.2511853f,
       0.6911422f, -2.3203123f, -0.5939324f, -0.3263375f, 0.0135903f,  2.0074310f,  -0.2701372f, -0.2768938f,
       0.7115068f, 1.4495424f,  -2.0953975f, -2.5585611f, -0.1155673f, -0.7015661f, -1.1295373f, -3.9974208f},
      {1.0901204f,  0.5291900f,  -0.7312966f, 0.2695511f,  -0.3206630f, 0.5999756f,  0.1753088f,  -0.6393226f,
       -0.2147262f, 0.2857661f,  0.1823744f,  0.1624257f,  -0.6103359f, -0.8528516f, -0.0002633f, -0.3652100f,
       0.1156825f,  0.8967240f,  -0.2870328f, -0.8372614f, 0.2005758f,  0.0818286f,  -0.6940161f, -0.9044238f,
       -0.3807935f, -0.2214918f, -0.0203391f, 0.3487991f,  -0.1652784f, -0.1043852f, 1.0124644f,  0.1977856f},
      {-1.0805539f, -0.3801545f, 0.2971959f, 0.7489669f,  0.4395851f,  -0.0089701f, -0.1500176f, -0.4555275f,
       -0.4427309f, 0.0307698f,  0.4038968f, -0.7615538f, -0.3554100f, 0.1801408f,  0.2098279f,  -0.0352366f,
       0.2094345f,  -0.9174475f, 0.0411166f, 0.7208717f,  0.2630422f,  0.6980420f,  0.6552902f,  0.7083861f,
       0.2834358f,  0.5071193f,  0.2860175f, 0.4064347f,  0.1500574f,  0.8663107f,  0.0683379f,  0.0225564f},
      {-0.1902111f, -0.3629991f, -0.0214016f, -0.5264192f, -0.1068960f, 0.0704819f,  -0.5963731f, -0.0691670f,
       -0.1410878f, -0.2600092f, -0.8927258f, -0.6569057f, 0.2137877f,  -0.0782413f, -0.8353058f, 0.1269709f,
       0.2900011f,  -0.0477426f, 0.5104031f,  0.0266380f,  -0.1969923f, 0.2406046f,  -0.7781409f, -0.0232862f,
       -0.5863935f, -0.1846801f, -0.3590619f, 0.8657572f,  -0.0072354f, -0.8416097f, 1.9523011f,  -0.0091805f},
      {0.9822667f, 1.6233298f,  0.0511632f,  -0.2639758f, -0.1810022f, 0.6387307f,  -0.6560160f, -0.7466695f,
       0.3014524f, 0.3063715f,  -0.4100165f, 0.3945423f,  0.2103268f,  -0.6111917f, 0.3777496f,  -0.3796495f,
       0.4189016f, 0.7610410f,  0.5340118f,  -2.2808769f, -0.3208642f, -0.8880783f, 0.2949848f,  -2.0283635f,
       0.0336603f, -0.6950844f, 0.1984716f,  0.3646566f,  -0.1735304f, -0.0611670f, 0.4450522f,  0.1583907f},
      {0.0636867f,  0.1384175f,  -0.0049833f, 0.0808488f,  -0.2643704f, -0.5308887f, -0.8042886f, -0.1339013f,
       -1.0442047f, -0.0082326f, 0.0714001f,  -0.1259913f, -0.1203061f, 0.3903975f,  0.1877205f,  0.0656546f,
       0.0531130f,  -0.0159976f, -0.4546536f, -0.2124887f, -0.9138253f, -0.1809184f, 0.0581350f,  -0.2135038f,
       0.0877821f,  0.0341343f,  -0.0982548f, 0.1018133f,  0.0214527f,  0.0023665f,  -0.0124794f, -0.0752740f},
      {-2.6482465f, -1.9643184f, 1.4632781f,  0.1363456f,  1.1774640f,  2.0011232f,  0.6533962f, -1.2694625f,
       0.1319895f,  -0.1236787f, 1.8235240f,  -2.7002456f, -0.9046015f, -2.0559835f, 1.2447560f, 0.1438472f,
       0.9403694f,  -0.1137627f, -0.1894755f, 1.3816379f,  0.8531777f,  -0.0469044f, 0.0120451f, 1.8130186f,
       0.2239441f,  -0.2389387f, 2.1297846f,  0.0226418f,  -0.1232061f, -1.9766923f, 0.4348207f, 1.0022463f},
      {0.0726078f,  0.2174630f,  0.0222516f,  -0.0590041f, 0.3405406f,  -0.3645176f, 0.6150705f,  0.2749915f,
       -2.0589826f, -0.7359788f, -0.2224570f, 0.1501230f,  0.2494548f,  -1.0504340f, -0.0637060f, -0.0056153f,
       -0.9519476f, 0.0426552f,  0.8168455f,  -0.0068977f, 0.7982553f,  0.2805318f,  -0.0115037f, 0.1248003f,
       -0.1245162f, -0.0521352f, 0.1446625f,  0.1372420f,  -0.1181431f, 0.0088375f,  0.1026059f,  -0.4593510f},
      {1.2959234f, 1.0874405f,  -0.4678084f, -0.2597119f, 0.0105689f,  0.5608118f,  -0.0324141f, 0.1705253f,
       0.1709294f, 0.2737900f,  -0.6023058f, -0.0213657f, -0.0532409f, 0.0070466f,  0.4685827f,  -0.0361760f,
       0.2773757f, 0.6099395f,  -0.1943696f, -1.0659668f, 0.1539157f,  -0.0726757f, 0.2098019f,  -1.0109100f,
       0.0632810f, -0.0423828f, 0.0895027f,  -0.1850332f, -0.1661781f, -0.4479190f, 0.4549161f,  0.4021139f},
      {0.5125757f, 0.3901961f,  0.1247668f,  -0.2420643f, 0.2857054f,  -0.0788449f, -0.0583978f, 0.2522430f,
       0.4860625f, -0.3114430f, -0.2215283f, 0.3981208f,  0.1157935f,  0.0970839f,  -0.1528172f, -0.5585419f,
       0.5461214f, -0.2014710f, 0.0789640f,  -0.0009909f, 0.3889891f,  -0.2779119f, 0.6347078f,  -0.0351390f,
       0.0494231f, 0.1093892f,  0.2795317f,  0.2989264f,  -0.1632284f, 0.5570195f,  -0.1728572f, 0.0579793f},
      {1.0130414f, 1.6778913f,  -0.0301409f, 3.9564512f,  -1.5096864f,  4.1178350f,  1.9588948f,  -0.7763779f,
       1.1538731f, 1.8500881f,  -0.8521340f, 0.3461847f,  -14.4974012f, 1.9623953f,  -1.0707743f, 0.4063441f,
       0.8609295f, 0.4767195f,  1.1614606f,  -0.8011385f, 0.5666173f,   0.3940414f,  -1.4574425f, -0.3827784f,
       1.5615965f, -0.1945490f, 0.0740866f,  0.3261864f,  0.0484712f,   -0.2143117f, -0.6609303f, 1.8335989f},
      {-0.1188615f, 0.3290201f,  0.3055688f,  0.2878012f,  -0.3256232f, -0.1703363f, 0.0132698f,  -0.0397455f,
       -0.7354665f, -0.2060234f, -0.9294736f, 0.6163423f,  0.0498914f,  0.1044868f,  -0.6502902f, 0.2501748f,
       0.7564857f,  0.0495264f,  -1.4348027f, 0.5499208f,  0.0145733f,  1.0699072f,  -0.0683814f, 0.4666266f,
       -0.0206597f, 0.6598449f,  -0.0216003f, -0.6318832f, -0.0893771f, -0.4005790f, -0.1554741f, -0.1041976f},
      {0.7601016f,  1.0851258f, -0.5374942f, -0.2562595f, 0.3919061f,  0.3523163f,  0.3219977f, -0.4049659f,
       -0.0837418f, 0.7206643f, 0.0643510f,  0.3011507f,  0.2696088f,  -0.7168580f, 0.7693983f, 0.7614360f,
       -0.8403002f, 1.1113133f, -0.3618211f, -0.5821502f, -0.6956918f, 0.2755654f,  0.8094082f, -0.5650576f,
       -0.0786741f, 0.3090871f, -0.0329532f, 0.0373283f,  -0.1129877f, -0.4817539f, 0.0610187f, 0.3597878f},
      {-0.2740684f, -0.1784311f, 0.2929306f,  0.1910987f,  0.3515956f,  0.8790730f, 0.3169001f,  -0.5410944f,
       -0.2132021f, -0.2445326f, -0.8716899f, -0.0580724f, -0.1167011f, 0.0406454f, -0.5205664f, -0.4104326f,
       0.6729257f,  -0.6225358f, 0.0409831f,  0.0041234f,  -0.3162328f, 0.1654379f, -0.3718764f, -0.0204477f,
       -0.0627261f, -0.0107637f, 0.2681538f,  0.3008724f,  0.0166650f,  0.1257709f, 0.0492461f,  0.4502463f},
      {0.9868995f,   2.0891557f,  -0.7207028f, 0.6938902f,  0.6863134f,  1.5349337f,  0.0330691f, -1.5908476f,
       -13.9256058f, 0.2418498f,  0.3158203f,  0.4701126f,  2.5227973f,  0.2207987f,  1.0612012f, -0.5739321f,
       -0.3826164f,  -0.0740358f, -7.0002775f, -0.4099222f, -3.6580050f, -0.8092458f, 0.2587700f, -1.2055938f,
       -1.2760743f,  -0.1166634f, 2.5609314f,  0.6464105f,  -0.0493174f, -3.6940694f, 2.0330362f, 0.9999002f},
      {0.2104541f,  0.0584707f,  0.2047079f,  0.0042435f,  -0.4747467f, -1.2772849f, -0.2129980f, 0.2089614f,
       -0.1449658f, -0.8834018f, -1.3298329f, 0.8124319f,  0.1245809f,  -0.2762398f, -0.8317520f, -0.8758736f,
       0.5354098f,  -0.1376735f, 0.1191342f,  0.2039252f,  0.1155544f,  0.7144775f,  -0.0601111f, -0.0917977f,
       -0.1652540f, 0.2737060f,  -0.0260948f, -0.2888621f, -0.1745275f, 0.0454044f,  0.0929005f,  -0.6249824f},
      {-0.2690616f, 1.0728872f,  0.0711328f,  -0.7494264f, 0.6617526f,  0.3818105f, 0.1335957f,  0.9610481f,
       0.3520358f,  -0.5582360f, -0.5950970f, 1.2601415f,  -0.4826574f, 0.6012774f, -0.6438909f, -0.0589611f,
       0.1471706f,  -0.2510823f, 0.1452181f,  -0.9100648f, -0.5434443f, 0.7268169f, -2.0743451f, -0.3297699f,
       -0.5492990f, -0.4158944f, 0.7358205f,  0.1402712f,  -0.0517034f, 2.2169552f, -0.3367206f, 0.1874433f},
      {-9.2711039f, -0.1081258f, -1.1322038f, 1.3674399f,  0.1211723f,  -2.2586417f, 0.5318022f,  0.9967640f,
       0.4651077f,  0.8153848f,  -0.5242084f, 0.0714919f,  -0.4609761f, -0.6778134f, -1.5119330f, 2.5211711f,
       -1.0182146f, 0.0162114f,  0.4952661f,  3.4885488f,  0.7247656f,  2.9071057f,  -1.6696059f, 4.0657001f,
       3.5970933f,  3.3449957f,  0.3765438f,  -0.3084880f, -0.1206246f, 0.3605160f,  -1.0260644f, -1.0578828f},
      {-0.4719426f, -0.5660475f, -0.1108561f, -0.4739304f, 0.2393519f,  -0.2890458f, -0.0651431f, -0.6019783f,
       -6.3484745f, -0.1079200f, 0.1198025f,  0.6611941f,  -0.0824139f, 0.0925192f,  0.6061990f,  0.4175399f,
       -0.4221613f, -0.3025696f, -0.4032157f, -0.1746794f, -0.1610461f, 0.3682507f,  0.3343816f,  0.0462767f,
       -0.0232048f, 0.2997411f,  -0.1299039f, -0.1019022f, 0.0256928f,  -0.0906166f, 0.1364110f,  -0.0431670f},
      {-0.4195566f, 0.2898138f,  -0.2826260f, -0.0966142f, -0.7941518f, -0.8209312f, -0.6357520f, 0.2651404f,
       0.2864592f,  -0.4596943f, 0.2739798f,  -0.4355436f, 0.0321002f,  0.4402923f,  0.0634488f,  0.3352888f,
       -0.2160896f, -0.5193557f, 0.2327692f,  0.7331687f,  0.0972251f,  0.1082225f,  0.4593504f,  0.5290249f,
       0.1122784f,  0.0923702f,  -0.2877032f, 0.0249229f,  -0.0505227f, 0.3804177f,  0.0023790f,  -0.5957875f},
      {-0.0460796f, -0.1253654f, 0.0322746f,  0.0193318f,  -0.0976563f, 0.0392905f,  -0.1811117f, 0.1425075f,
       0.1543903f,  -0.1075431f, -0.0343829f, -0.1051004f, 0.0338799f,  -0.1334542f, -0.0769857f, 0.0145929f,
       0.0155941f,  -0.0064514f, -0.1447493f, -0.0142195f, 0.0437183f,  0.0947085f,  -0.0245927f, 0.0768182f,
       -0.1970029f, 0.1870344f,  0.0095379f,  0.1011385f,  -0.1283031f, 0.1010866f,  -0.0862623f, -0.0408179f},
      {0.2639618f,  -0.0947209f, 0.2112172f,  0.8733327f,  -0.0622171f, 0.4956684f,  -0.0565969f, -0.6562103f,
       -0.1438587f, 0.3239915f,  0.4512051f,  0.1618370f,  -0.4833302f, -0.3410430f, 0.1650464f,  0.1349985f,
       0.3446740f,  0.0229080f,  0.3057870f,  0.4728976f,  0.4276222f,  -0.6803986f, -0.6131153f, 0.1224516f,
       -0.1670748f, -0.3161517f, -0.1901361f, -0.1748789f, -0.0601182f, 0.8013321f,  -0.5011169f, -0.0451924f},
  };

  ALPAKA_STATIC_ACC_MEM_GLOBAL const float bias_4[1] = {-0.6114188f};

  ALPAKA_STATIC_ACC_MEM_GLOBAL const float wgtT_4[32][1] = {
      {2.3054221f},  {-0.8333473f}, {1.5833914f},  {-1.0227331f}, {0.8355048f},  {2.2504785f},  {0.8970258f},
      {1.7678815f},  {2.0933545f},  {1.4367334f},  {0.5637048f},  {-0.7101942f}, {-3.4703007f}, {3.6258194f},
      {-0.9964936f}, {1.2999256f},  {-0.7985672f}, {-1.0972545f}, {1.8170270f},  {4.3414621f},  {1.5573386f},
      {0.9323269f},  {-0.8438534f}, {-7.6549931f}, {1.0092427f},  {1.2257496f},  {1.6619996f},  {0.6544133f},
      {-0.1595533f}, {0.5165066f},  {-0.5120233f}, {-6.2826419f},
  };
}  // namespace T5DNN

#endif
